digraph Tree {
node [shape=box, style="filled, rounded", color="black", fontname="helvetica"] ;
edge [fontname="helvetica"] ;
0 [label=<x<SUB>0</SUB> &le; 0.933<br/>entropy = 1.0<br/>samples = 3000<br/>value = [1500, 1500]<br/>class = Theft Over>, fillcolor="#ffffff"] ;
1 [label=<x<SUB>1</SUB> &le; 0.68<br/>entropy = 0.853<br/>samples = 1771<br/>value = [493, 1278]<br/>class = Auto Theft>, fillcolor="#85c3ef"] ;
0 -> 1 [labeldistance=2.5, labelangle=45, headlabel="True"] ;
2 [label=<x<SUB>1</SUB> &le; -0.993<br/>entropy = 0.73<br/>samples = 1240<br/>value = [253.0, 987.0]<br/>class = Auto Theft>, fillcolor="#6cb6ec"] ;
1 -> 2 ;
3 [label=<x<SUB>1</SUB> &le; -1.077<br/>entropy = 0.557<br/>samples = 578<br/>value = [75, 503]<br/>class = Auto Theft>, fillcolor="#57ace9"] ;
2 -> 3 ;
4 [label=<x<SUB>1</SUB> &le; -1.411<br/>entropy = 0.565<br/>samples = 565<br/>value = [75, 490]<br/>class = Auto Theft>, fillcolor="#57ace9"] ;
3 -> 4 ;
5 [label=<x<SUB>0</SUB> &le; -0.984<br/>entropy = 0.525<br/>samples = 397<br/>value = [47, 350]<br/>class = Auto Theft>, fillcolor="#54aae8"] ;
4 -> 5 ;
6 [label=<entropy = 0.54<br/>samples = 372<br/>value = [46, 326]<br/>class = Auto Theft>, fillcolor="#55abe9"] ;
5 -> 6 ;
7 [label=<entropy = 0.242<br/>samples = 25<br/>value = [1, 24]<br/>class = Auto Theft>, fillcolor="#41a1e6"] ;
5 -> 7 ;
8 [label=<x<SUB>1</SUB> &le; -1.202<br/>entropy = 0.65<br/>samples = 168<br/>value = [28, 140]<br/>class = Auto Theft>, fillcolor="#61b1ea"] ;
4 -> 8 ;
9 [label=<x<SUB>1</SUB> &le; -1.328<br/>entropy = 0.717<br/>samples = 81<br/>value = [16, 65]<br/>class = Auto Theft>, fillcolor="#6ab5eb"] ;
8 -> 9 ;
10 [label=<entropy = 0.713<br/>samples = 46<br/>value = [9, 37]<br/>class = Auto Theft>, fillcolor="#69b5eb"] ;
9 -> 10 ;
11 [label=<entropy = 0.722<br/>samples = 35<br/>value = [7, 28]<br/>class = Auto Theft>, fillcolor="#6ab6ec"] ;
9 -> 11 ;
12 [label=<entropy = 0.579<br/>samples = 87<br/>value = [12, 75]<br/>class = Auto Theft>, fillcolor="#59ade9"] ;
8 -> 12 ;
13 [label=<entropy = 0.0<br/>samples = 13<br/>value = [0, 13]<br/>class = Auto Theft>, fillcolor="#399de5"] ;
3 -> 13 ;
14 [label=<x<SUB>1</SUB> &le; -0.909<br/>entropy = 0.84<br/>samples = 662<br/>value = [178, 484]<br/>class = Auto Theft>, fillcolor="#82c1ef"] ;
2 -> 14 ;
15 [label=<entropy = 0.667<br/>samples = 46<br/>value = [38, 8]<br/>class = Theft Over>, fillcolor="#ea9c63"] ;
14 -> 15 ;
16 [label=<x<SUB>1</SUB> &le; 0.262<br/>entropy = 0.773<br/>samples = 616<br/>value = [140, 476]<br/>class = Auto Theft>, fillcolor="#73baed"] ;
14 -> 16 ;
17 [label=<x<SUB>1</SUB> &le; -0.742<br/>entropy = 0.777<br/>samples = 610<br/>value = [140, 470]<br/>class = Auto Theft>, fillcolor="#74baed"] ;
16 -> 17 ;
18 [label=<entropy = 1.0<br/>samples = 8<br/>value = [4, 4]<br/>class = Theft Over>, fillcolor="#ffffff"] ;
17 -> 18 ;
19 [label=<x<SUB>0</SUB> &le; 0.057<br/>entropy = 0.771<br/>samples = 602<br/>value = [136, 466]<br/>class = Auto Theft>, fillcolor="#73baed"] ;
17 -> 19 ;
20 [label=<entropy = 0.782<br/>samples = 538<br/>value = [125, 413]<br/>class = Auto Theft>, fillcolor="#75bbed"] ;
19 -> 20 ;
21 [label=<x<SUB>1</SUB> &le; -0.502<br/>entropy = 0.662<br/>samples = 64<br/>value = [11, 53]<br/>class = Auto Theft>, fillcolor="#62b1ea"] ;
19 -> 21 ;
22 [label=<entropy = 0.0<br/>samples = 2<br/>value = [0, 2]<br/>class = Auto Theft>, fillcolor="#399de5"] ;
21 -> 22 ;
23 [label=<x<SUB>1</SUB> &le; -0.46<br/>entropy = 0.674<br/>samples = 62<br/>value = [11, 51]<br/>class = Auto Theft>, fillcolor="#64b2eb"] ;
21 -> 23 ;
24 [label=<entropy = 0.0<br/>samples = 1<br/>value = [1, 0]<br/>class = Theft Over>, fillcolor="#e58139"] ;
23 -> 24 ;
25 [label=<x<SUB>1</SUB> &le; -0.157<br/>entropy = 0.644<br/>samples = 61<br/>value = [10, 51]<br/>class = Auto Theft>, fillcolor="#60b0ea"] ;
23 -> 25 ;
26 [label=<x<SUB>1</SUB> &le; -0.408<br/>entropy = 0.544<br/>samples = 24<br/>value = [3, 21]<br/>class = Auto Theft>, fillcolor="#55abe9"] ;
25 -> 26 ;
27 [label=<entropy = 0.61<br/>samples = 20<br/>value = [3, 17]<br/>class = Auto Theft>, fillcolor="#5caeea"] ;
26 -> 27 ;
28 [label=<entropy = 0.0<br/>samples = 4<br/>value = [0, 4]<br/>class = Auto Theft>, fillcolor="#399de5"] ;
26 -> 28 ;
29 [label=<entropy = 0.7<br/>samples = 37<br/>value = [7, 30]<br/>class = Auto Theft>, fillcolor="#67b4eb"] ;
25 -> 29 ;
30 [label=<entropy = 0.0<br/>samples = 6<br/>value = [0, 6]<br/>class = Auto Theft>, fillcolor="#399de5"] ;
16 -> 30 ;
31 [label=<x<SUB>1</SUB> &le; 1.558<br/>entropy = 0.993<br/>samples = 531<br/>value = [240.0, 291.0]<br/>class = Auto Theft>, fillcolor="#dceefa"] ;
1 -> 31 ;
32 [label=<x<SUB>1</SUB> &le; 1.098<br/>entropy = 0.997<br/>samples = 504<br/>value = [237, 267]<br/>class = Auto Theft>, fillcolor="#e9f4fc"] ;
31 -> 32 ;
33 [label=<x<SUB>1</SUB> &le; 0.776<br/>entropy = 0.976<br/>samples = 83<br/>value = [34, 49]<br/>class = Auto Theft>, fillcolor="#c2e1f7"] ;
32 -> 33 ;
34 [label=<x<SUB>1</SUB> &le; 0.734<br/>entropy = 1.0<br/>samples = 55<br/>value = [28.0, 27.0]<br/>class = Theft Over>, fillcolor="#fefaf8"] ;
33 -> 34 ;
35 [label=<entropy = 1.0<br/>samples = 54<br/>value = [27, 27]<br/>class = Theft Over>, fillcolor="#ffffff"] ;
34 -> 35 ;
36 [label=<entropy = 0.0<br/>samples = 1<br/>value = [1, 0]<br/>class = Theft Over>, fillcolor="#e58139"] ;
34 -> 36 ;
37 [label=<x<SUB>1</SUB> &le; 1.014<br/>entropy = 0.75<br/>samples = 28<br/>value = [6, 22]<br/>class = Auto Theft>, fillcolor="#6fb8ec"] ;
33 -> 37 ;
38 [label=<entropy = 0.0<br/>samples = 13<br/>value = [0, 13]<br/>class = Auto Theft>, fillcolor="#399de5"] ;
37 -> 38 ;
39 [label=<entropy = 0.971<br/>samples = 15<br/>value = [6, 9]<br/>class = Auto Theft>, fillcolor="#bddef6"] ;
37 -> 39 ;
40 [label=<entropy = 0.999<br/>samples = 421<br/>value = [203.0, 218.0]<br/>class = Auto Theft>, fillcolor="#f1f8fd"] ;
32 -> 40 ;
41 [label=<x<SUB>0</SUB> &le; 0.317<br/>entropy = 0.503<br/>samples = 27<br/>value = [3, 24]<br/>class = Auto Theft>, fillcolor="#52a9e8"] ;
31 -> 41 ;
42 [label=<entropy = 0.0<br/>samples = 11<br/>value = [0, 11]<br/>class = Auto Theft>, fillcolor="#399de5"] ;
41 -> 42 ;
43 [label=<entropy = 0.696<br/>samples = 16<br/>value = [3, 13]<br/>class = Auto Theft>, fillcolor="#67b4eb"] ;
41 -> 43 ;
44 [label=<x<SUB>1</SUB> &le; 0.847<br/>entropy = 0.681<br/>samples = 1229<br/>value = [1007.0, 222.0]<br/>class = Theft Over>, fillcolor="#eb9d65"] ;
0 -> 44 [labeldistance=2.5, labelangle=-45, headlabel="False"] ;
45 [label=<x<SUB>1</SUB> &le; 0.303<br/>entropy = 0.533<br/>samples = 850<br/>value = [747, 103]<br/>class = Theft Over>, fillcolor="#e99254"] ;
44 -> 45 ;
46 [label=<x<SUB>0</SUB> &le; 1.618<br/>entropy = 0.961<br/>samples = 26<br/>value = [10, 16]<br/>class = Auto Theft>, fillcolor="#b5daf5"] ;
45 -> 46 ;
47 [label=<entropy = 0.994<br/>samples = 22<br/>value = [10, 12]<br/>class = Auto Theft>, fillcolor="#deeffb"] ;
46 -> 47 ;
48 [label=<entropy = 0.0<br/>samples = 4<br/>value = [0, 4]<br/>class = Auto Theft>, fillcolor="#399de5"] ;
46 -> 48 ;
49 [label=<entropy = 0.486<br/>samples = 824<br/>value = [737, 87]<br/>class = Theft Over>, fillcolor="#e89050"] ;
45 -> 49 ;
50 [label=<x<SUB>0</SUB> &le; 1.618<br/>entropy = 0.898<br/>samples = 379<br/>value = [260, 119]<br/>class = Theft Over>, fillcolor="#f1bb94"] ;
44 -> 50 ;
51 [label=<x<SUB>0</SUB> &le; 1.193<br/>entropy = 0.876<br/>samples = 369<br/>value = [260, 109]<br/>class = Theft Over>, fillcolor="#f0b68c"] ;
50 -> 51 ;
52 [label=<entropy = 0.0<br/>samples = 1<br/>value = [1, 0]<br/>class = Theft Over>, fillcolor="#e58139"] ;
51 -> 52 ;
53 [label=<entropy = 0.877<br/>samples = 368<br/>value = [259, 109]<br/>class = Theft Over>, fillcolor="#f0b68c"] ;
51 -> 53 ;
54 [label=<entropy = 0.0<br/>samples = 10<br/>value = [0, 10]<br/>class = Auto Theft>, fillcolor="#399de5"] ;
50 -> 54 ;
}